-30
00
-01
11
49
10
01
07
06
-09
18
01
-04
01
12
03
-02
00
-03
-11
-08
15
11
-22
04
-04
-05
-09
-07
-03
05
-05
26
00
-04
17
-56
05
17
-05
03
04
12
-12
02
04
07
06
23
00
-06
16
88
-07
-06
69
-16
-14
-14
-07
-20
06
17
02
-15
00
-11
-16
11
05
-16
-22
-01
30
-24
-11
-18
03
16
-05
08
00
-14
07
-38
-10
-13
-08
13
-21
-51
-15
-05
09
18
07
32
00
-01
09
20
07
13
-04
-10
-03
23
04
-18
02
12
07
-02
00
-08
03
-20
22
00
-15
00
16
-02
01
-15
02
09
-02
-22
00
-09
12
-19
06
-12
07
06
-10
-25
-04
-07
03
10
-05
-50
00
-05
-04
04
09
28
37
-08
-23
-72
-06
09
09
-01
-08
-24
00
00
-28
04
-09
37
-25
00
44
-53
-08
01
-01
-10
-08
37
00
-05
07
-22
-10
39
01
09
-14
01
-10
06
03
-02
09
16
00
-09
-25
-13
-50
-09
77
-31
-23
127
01
15
20
-03
-04
-61
00
-03
-56
08
-50
-21
-58
03
99
119
09
09
06
-05
04
-05
00
-09
-23
17
-51
-07
-24
31
-42
67
05
15
06
02
22
70
00
-05
03
-42
-12
-16
20
-27
-23
04
12
08
12
-03
01
-11
00
-03
-08
-21
-06
-28
-24
-02
48
-24
19
06
03
-06
06
-24
00
-06
02
14
-15
-25
-01
19
-39
-30
18
13
02
-02
10
-26
00
02
-01
-25
19
06
-18
-02
-32
01
-16
13
09
-05
-12
07
00
12
-10
20
-02
10
01
-04
22
-01
-10
-05
-05
-11
-07
35
00
10
08
11
-04
16
10
01
00
30
-08
-06
-05
-04
03
02
00
06
-14
-59
17
-09
05
-23
-33
-54
-05
20
14
-12
-12
-27
00
20
-30
18
12
-07
-24
00
65
-46
08
05
-02
-13
01
09
00
14
-18
46
-05
-03
09
20
-35
19
08
03
-08
-03
13
29
00
04
13
-37
05
01
-16
-16
-15
-09
06
10
04
-08
-01
05
00
12
15
07
08
04
04
01
34
-22
16
02
-03
-10
10
-06
00
12
10
43
-06
00
15
15
-24
-03
18
01
-08
-06
11
